5.815453E-4
0.0019009515
0.0039746333
-2.0676249E-4
-0.0019428397
-8.8905334E-4
0.0010064652
-0.0017527316
-1.9465582E-4
6.104697E-4
-2.4408425E-4
-0.0018724609
-0.001036155
-0.0030427142
-2.8098404E-4
0.0016318702
0.0010545428
8.481832E-4
-1.09377244E-4
-0.001269161
2.8493127E-4
0.0011398251
5.1851233E-4
-3.8953515E-4
0.0025432126
1.6593735E-4
-0.0020029135
-0.0022742837
-0.0017114446
-0.0020770717
7.8462664E-4
3.6676906E-4
-0.0013471404
-0.0014579359
3.15906E-5
-0.0011090081
-0.0020869812
4.7810696E-4
0.0027155718
5.4395886E-4
0.0042595174
-7.6266995E-4
-0.0019167868
-0.0030766986
-9.85642E-4
0.0023685633
0.0049643503
9.003E-4
-0.0013407704
-5.6618406E-4
0.0015287888
0.003546353
0.005854897
0.0033265857
0.002287732
0.0028282357
0.0031546587
0.00645811
0.007974289
0.00560672
0.0044507924
0.004466854
0.0034901337
0.0070234686
0.005556818
0.006305075
0.005142403
0.0061040176
0.0051184176
0.003390186
0.002119414
0.0064143455
0.00682804
0.006162497
0.0052433764
0.0018436377
0.0015952671
0.0011921903
0.0024219528
0.0014174999
2.3474779E-5
4.3382068E-4
8.6404773E-4
7.5550517E-4
0.0017625245
0.002108438
0.0010410876
0.0016742616
5.142838E-4
-6.5603154E-4
0.0014084524
0.0025502127
0.0011670485
4.5011158E-4
-3.4585653E-4
-0.0017610227
5.36024E-4
0.002029526
6.535357E-4
8.782727E-4
0.0016976548
0.0014107213
5.12408E-4
2.8145587E-4
5.951988E-4
0.0018257868
0.002765893
0.0025315038
0.0017001963
0.0012750195
-5.923394E-4
0.001828133
5.1233737E-4
0.0032135588
0.0031023752
0.003603091
0.0018898635
-6.50216E-4
0.0028349492
0.004343207
0.00420795
0.0060409545
0.0029748352
2.9554666E-4
0.0011244685
0.0030384166
0.0026259152
0.004802842
0.0030827534
2.1246125E-4
-0.0011467232
-4.4861546E-4
0.0012174433
0.0016132102
2.5118876E-4
-1.462103E-4
1.491323E-4
-5.4009963E-4
-0.0010501514
-4.9704347E-5
9.3388844E-5
-2.8624065E-4
-8.269957E-4
-9.899392E-4
-0.002057163
-0.0020087233
-0.0011006186
-8.4753055E-4
-9.0664154E-4
-0.0011015891
-0.003725639
-0.0038636285
-0.001624405
-2.5319927E-5
0.0015397874
-0.0016071277
-0.004219415
-0.0025757686
2.6821377E-5
0.0021810553
0.0011680236
-0.0011872421
-0.0025971923
-3.544815E-4
0.0010320069
0.0017018617
7.998661E-5
-0.0022957013
-5.25597E-4
1.272439E-4
-5.618785E-4
0.0025846483
-0.00137569
-7.0767937E-4
9.2478713E-4
-6.99104E-4
-0.0012868026
0.0010615806
-5.479686E-4
-0.0010435265
0.0012704402
3.887789E-4
4.568944E-5
2.7083152E-4
-0.0014053383
-7.414687E-4
-0.0018937638
-0.0032087602
-0.0019064686
-0.0012171317
0.0012527219
0.0023614997
3.1634886E-4
-7.1225513E-4
0.0022010983
-4.0736562E-4
0.0018146252
-6.3033827E-4
-8.722291E-4
-9.377738E-4
4.398746E-4
-0.0032600896
-2.1904403E-4
-7.7574444E-4
-0.0020822482
-0.0020532142
-0.0019099754
-0.00139605
-0.0029929746
-0.004644566
-0.0037595744
-0.0024021263
-0.002412831
-0.0026599683
-0.005416058
-0.0051977374
-0.005968254
-0.0058372053
-0.005638881
-0.005088399
-0.0018941285
7.4502765E-5
5.659242E-4
1.2297866E-4
9.5837325E-4
-0.0012409808
-0.0015005406
-1.5404318E-4
-6.8467297E-4
-0.0024626139
4.9367976E-5
-4.3394012E-4
-4.186398E-4
2.4235512E-4
0.0010917748
-6.544128E-4
-0.0010681314
-4.303682E-4
0.0017261666
8.430484E-4
0.003915324
0.0031721394
1.2230079E-4
0.0016456104
0.0031815004
0.002593554
0.0011748221
0.0017039671
0.0015706539
0.002492458
0.001245378
1.3205202E-4
0.0010758159
0.0034342175
9.906525E-4
-3.4514873E-5
0.0010044944
9.5180783E-4
5.58094E-4
0.0016546668
0.0040399954
0.0035710507
0.0024683666
-1.5650148E-4
2.8576126E-4
0.0029878048
0.0041265506
0.0010632325
0.001530735
2.6719936E-5
-0.0012254464
2.6557E-4
0.00382709
0.0025617746
-9.786475E-4
2.5043086E-4
-0.002297787
-0.0012188961
0.0016479043
0.0015920317
-2.7426143E-4
3.452978E-4
-4.930241E-4
-0.0027918727
-5.386624E-4
-0.0026537168
0.0021451348
-0.0012324988
-0.0011875604
0.0012120695
4.272172E-4
-0.0025934442
5.307114E-4
-0.0011867615
-3.5049813E-4
-1.7868746E-4
-0.0026177843
-0.0010502223
-9.924155E-4
0.0017230106
-5.7501777E-4
-0.0010167097
0.0012761687
-2.8376776E-4
-0.001968711
4.259777E-4
-0.0020440044
-0.0024757334
-1.5852772E-4
-0.0021643871
-0.0021471917
-0.0027861907
-0.003935662
-0.0041899513
-0.004983248
-0.003126772
-0.0015425739
-0.0012168111
-0.0032544658
-0.0036552018

