0.0038192458
0.0029136862
0.0025944985
0.0022929837
0.0017022179
0.0040007504
1.0971217E-4
6.463799E-4
9.849889E-4
0.0013994434
0.0017398514
0.0011898952
0.0013998025
-4.7547644E-4
5.0212676E-4
7.271994E-4
5.79787E-5
0.0021933732
0.0030635698
0.0024773588
0.002354675
0.00222877
5.0284533E-4
0.0028080957
0.0038694465
0.0023779264
8.4356545E-4
0.002056689
0.0011889334
0.0021968046
0.0012622898
-0.0015687153
-4.2414555E-4
5.8362377E-4
-4.4611993E-4
0.0017047839
0.0011281371
0.0011523562
-0.001017332
-0.0023168544
0.0019133813
2.1821426E-5
0.0020679994
-6.79875E-4
-0.0025522304
-0.00402009
-0.0025059497
-0.001315922
0.0012725168
-0.0011256663
-4.4468266E-4
-0.0019020218
-0.0021325466
-0.0010512997
-8.85938E-4
-0.0010642908
-2.868597E-4
-2.2554262E-4
-8.822683E-4
-2.5614415E-4
-0.0031762202
-0.0017066589
-6.015579E-4
-8.4272795E-4
-0.001999058
-0.0029970545
8.654342E-4
-0.0019156656
3.8980233E-4
-8.0103644E-5
-0.0021937084
-0.0041046552
-0.0013060695
0.004434242
0.0041469587
0.0047008926
0.0010882897
-2.627568E-5
0.0011840705
9.3124795E-4
-2.0424376E-4
0.0010220505
-7.060283E-4
-0.0011521231
-5.795958E-4
-0.0013366982
-0.003364918
-0.0019167529
-0.0013549244
-0.0010033501
-0.0016365063
-0.003079479
-0.002619192
-8.0712314E-4
-8.4141135E-4
-4.6677035E-4
-5.4173986E-4
-5.437096E-4
-1.482086E-4
0.0010456139
4.077738E-4
5.1749405E-4
-4.8314154E-4
5.3988444E-4
0.0016266948
5.1696255E-4
-8.071939E-4
-4.1074835E-4
1.6086207E-4
6.9852674E-4
-1.9175746E-4
0.0015583229
0.0016557899
-0.001329732
8.23312E-4
-0.0017678022
-9.761752E-4
6.727905E-4
-0.0012019615
-3.6811002E-4
0.003005811
8.135844E-4
-4.2281178E-4
-3.4627193E-4
5.2916585E-4
0.0027661019
-0.0011146108
0.001446831
5.3186016E-4
-4.2536808E-4
5.0479016E-4
-4.0648045E-4
-0.001384223
-0.0024849141
0.0011103761
0.0015366916
-5.3302944E-4
-8.678765E-5
4.195589E-4
-0.001826039
-9.386485E-4
8.789226E-5
-0.0023647775
0.0013500543
-6.538341E-4
-0.0030401843
-0.004527869
-0.0039055808
-0.0024266532
-0.0020865994
4.7702866E-4
-0.0013849194
-0.005186669
-0.0035369042
5.725338E-4
-0.0011065891
-2.0811585E-4
0.0020390819
-0.0022012563
-0.0014701136
0.0034810617
-0.0012505027
-6.6813646E-4
1.0421719E-4
-0.0023709645
-0.0011842592
0.0017549639
-9.536012E-4
-0.0011437882
-0.0014629381
6.9010886E-4
4.1164886E-4
8.782375E-5
7.8764156E-4
3.0157712E-4
-0.0013705064
6.234096E-5
5.8894814E-4
-0.0012495269
0.0010679356
0.0021737043
0.004008242
0.0023293474
-4.677591E-4
-7.08623E-5
8.234796E-4
0.0035676623
0.0032843314
0.0018573925
0.0017749681
0.0038801818
0.002557503
0.0027970406
0.002175403
0.0028804643
0.0021867985
0.0018012841
3.0017213E-4
0.002163791
7.759362E-4
0.0018916659
0.002035104
-0.0010775722
2.1709534E-4
0.0033016019
0.001666812
0.0027588475
0.002820583
0.0025978186
0.0018592862
0.003977268
1.7325813E-4
0.0012679582
0.0027377536
0.0041819075
9.957284E-4
-0.0016768363
-1.9935047E-4
-0.001835922
-0.0018405876
-0.0011870433
-0.0021555347
2.9924847E-4
3.7888152E-4
-0.0027411594
-0.0033898354
-5.5921846E-4
-0.0017560911
-0.0023387673
-0.0023280624
-0.0030655104
-0.005341154
-0.0033892517
-0.0023030182
-0.003639918
-0.0032378337
-0.002372635
-0.003294512
-0.0043695653
-0.0018803463
-0.002284817
-0.0026737659
-3.3504504E-4
-5.3381105E-4
-0.0028373934
-8.0706354E-4
-0.003382756
-0.0021098405
7.0417626E-4
-2.2649755E-4
-0.0023800964
-0.001688665
-7.326823E-4
0.0010816751
-6.133468E-5
-4.6877546E-4
-1.5365584E-4
-2.3624382E-4
1.5158844E-4
-8.6406723E-4
-3.9598235E-4
-0.0015184521
-0.0020593698
0.0015760951
-7.3488615E-4
0.0034558454
0.0015844925
5.6953524E-4
-6.2775594E-5
7.543124E-4
-0.0025566192
0.0039253943
0.0035648644
9.739926E-4
0.0025437642
-2.9725397E-5
-3.8593463E-4
7.9513324E-4
0.0016660669
0.0010498634
0.0012741787
-0.0013782491
1.09677785E-4
-6.2867027E-4
-7.0625753E-4
-0.0017909652
-4.021028E-4
3.17714E-4
3.687583E-4
5.024354E-4
0.0014128004
4.2487512E-4
0.0011439219
0.00106544
6.3357997E-4
0.0014345283
0.0033717426
8.764168E-4
4.8462255E-4
0.003625768
8.186386E-4
0.001825606
0.0045582876
0.003643837
0.0018199533
0.0026949141
-7.942654E-4
8.94866E-4
0.004441429
0.0040207617
0.0019323593
0.0017384763
-0.0010163733
7.112295E-4
0.001120022
0.002245534
9.3565043E-4
-5.7554117E-4
-0.005183971
-0.005179463
-0.00237172
-0.0017850854
-0.0012691302
-0.0015924807
0.0021871512
3.9261873E-4
0.002645955
4.8500812E-4
8.0688926E-4
-0.0029720133
0.0051778955
0.0021408831
0.0021701446
0.0026038215
0.0036008237
0.0025932929
0.004721113
0.0038599442
0.0033274635
0.0030035437
0.0034664366
9.6029823E-4
0.0031353822
0.0033413228
0.005241259
0.0018805006
-1.9839694E-4
-8.586666E-4
7.2204316E-4
0.0011557706
0.0031721941
0.0018319441
2.1283973E-4
-0.0012757718
0.001968923
0.004323541
0.00280231
0.0027706006
0.0010321087
-0.0018443428
0.0010849624
1.5347227E-4
6.4403424E-4
3.9104163E-4
9.163649E-4
4.918102E-4
-0.0017069695
-3.2467727E-4
-2.466416E-4
-0.0024045962
0.0019599712
0.0033096452
0.004025452
0.0030719177
0.0023591963
-0.0014546185
0.0030757948
0.00574123
0.004145815
0.0038729538
0.0045125913
4.4145453E-4
0.0024195928
0.0044960035
4.4298777E-4
0.0024868206
0.004324372
0.0015437026
0.0011309298
0.0022373665
7.578636E-5
4.922744E-4
0.002003111
0.0010655925
8.5696473E-4
0.002421107
4.2374224E-5
9.791222E-4
0.0026549655
7.25857E-4
-6.2061707E-4
-0.002270054
-3.7442986E-4
-6.241576E-4
-4.2480405E-4
4.250915E-4
8.537391E-4
-0.0013168731
-8.901082E-4
-1.0997175E-4
3.4353015E-4
-5.365945E-4
8.0279855E-4
0.0017087506
2.4246445E-4
0.0024210536
0.0019183531
-1.9262156E-4
7.9311547E-4
0.0019572051
-8.086033E-4
8.0759893E-4
-2.805537E-4
-0.0010973098
0.001188695
0.0025070217
-0.0015734269
-0.0020971494
-0.002742162
-0.0030637835
-9.4883563E-4
4.6732585E-4
-0.0011407232
0.0026033744
0.0045690937
4.899346E-4
-0.0013744184
-4.6281808E-4
-0.0011045826
9.785136E-4
0.0011705251
-9.288359E-4
-9.500694E-5
0.0028836178
5.368161E-4
0.0010638658
-0.0029020547
-7.3784933E-4
3.1092227E-4
8.775708E-4
-3.4575636E-4
-0.0020130808
-0.0013482186
-3.6601827E-4
4.2297825E-4
1.0426949E-4
6.593026E-4
1.3379806E-5
-4.314975E-4
2.7102197E-4
0.0018115989
9.265931E-4
-3.3806433E-4
0.0017799031
-9.622192E-4
-0.0027456854
6.092074E-5
8.248917E-4
9.81019E-4
0.0022735852
0.0020583184
0.003969506
0.00493805
0.001179032
0.0033751451
-7.879449E-5
-6.713596E-4
0.003144933
0.0031380178
-4.1393003E-5
0.0042404016
0.0017482934
-2.8568326E-4
0.003379174
0.004866068
0.002153148
0.0027102802
0.0051475917
0.0032129667
0.0013542667
0.005070425
0.005959399
0.0038758945
0.0041911043
0.004316766
0.0033255909
0.0035739457
0.0043236185
0.004278399
0.0058285417
0.007364708
0.008219719
0.005404711
0.0035554424
2.7969514E-4
0.0053372784
0.0048594815
0.0047330763
0.003202502
-0.0038951747
0.0018414661
0.004323371
0.0052317437
0.0062909797
0.004369667
-0.0013077657
0.0028147702
0.004754667
0.0072263237
0.0050726933
0.0042001586
0.0011739689
-6.7223306E-4
0.0028973126
0.0050111385
0.0018891131
0.0017721409
0.0017484295
0.0015425982
-3.997579E-4
0.0021071215
0.0012844305
0.001896842
0.0024237507
0.005178636
0.0038159029
0.0025978684
0.0020494112
3.4359833E-5
0.0014836983
-0.002362186
0.002167134
7.249294E-4
5.2860792E-5
7.9363666E-4
-0.001854284
-2.655125E-4
3.6531582E-4
-0.0013821289
7.719674E-5
0.0022294042
-6.033047E-4
7.4668124E-4
-0.0020374972
-0.0029213633
-0.001978654
0.0010687159
0.0014044584
0.0026345355
1.7053574E-4
-9.84928E-4
-0.0027048944
-1.415346E-4
0.0031826058
0.0023250766
0.0013300416
0.0035985524
0.003602583
0.0026283069
0.0019942482
-0.0020303186
-0.0026536193
-0.0035524452
-0.0035566445
-0.0018895497
-0.003965482
-0.0021849168
0.0024842315
0.0027926974
0.0032278225
0.0022075383
-0.0027280468
-0.0024163914
7.0492947E-4
-2.1050717E-5
-7.5723836E-4
-7.811012E-4
0.0010243568
-8.472074E-4
-6.970714E-4
-0.0032658614
-0.0010502673
0.0010844008
4.4623285E-4
4.595294E-5
-2.5066297E-4
-0.0011629534
2.7693593E-4
0.0022649616
-3.18864E-4
-0.003514711
-0.0011271306
-0.0018266708
1.2326037E-4
0.00195018
-9.647921E-4
-0.0014753788
-0.0028855724
-0.0034492193
-0.003563514
-0.0011145575
-4.952085E-4
4.006108E-5
-2.7932663E-5
0.003055363
0.004267427
5.992527E-4
-8.0064905E-4
-3.3667588E-5
7.42064E-4
0.003341771
0.00532853
0.004718258
0.0022902633
5.745867E-4
0.0011976552
6.3173217E-4
0.0012192954
3.3018645E-4
-9.013922E-5
8.903488E-4
0.0029318403
0.0023302312
-4.788931E-4
-0.0016249211
1.843732E-4
6.681221E-4
0.0015504637
-1.1987152E-4
-0.0010148338
-5.22656E-4
0.0016216105
-0.002169373
-0.0035861912
-4.4920994E-4
-8.123622E-4
-0.0015932014
-6.8368553E-4
6.452715E-4
6.410101E-4
0.001114297
0.0013410619
0.0020039168
0.0011299537
0.0024728316
-0.0022699868
3.8441864E-4
3.7700083E-4
0.001123623
0.0010143917
0.0042304206
-6.0867576E-4
2.6196562E-4
-3.3462397E-4
3.5286415E-4
1.9850238E-4
-2.1771976E-4
-0.003754809
-0.0033897317
-0.0017528583
-0.0015178621
-0.001673875
-0.0025932603
-0.0032754429
-0.0032206008
-0.0011101058
-0.002718025
-0.0023422693
-0.0021007974
-0.0016871134
8.765778E-5
-2.3067849E-4
-6.4258504E-4
-2.6614883E-4
-0.003837464
-3.8535873E-4
0.0018382526
7.0630325E-5
3.7923869E-4
-0.002052343
-0.0017785742
-0.0011693406
-0.00250383
-0.0036054207
-0.0011081896
-0.002108002
-3.671231E-4
8.1279664E-4
0.0023645218
-6.8716856E-4
-4.13817E-4
2.5174391E-5
0.0017503273
-1.5334494E-4
0.0015877959
0.0033645534
0.0022868072
-4.2953546E-4
4.162876E-4
0.0014349225
-3.311817E-4
0.003976192
0.0057100914
-0.0015312894
0.0020737061
0.001265744
4.6219357E-4
0.0036080007
0.00421243
-0.002715428
-3.6637345E-4
-4.4200948E-4
0.0015177988
8.936968E-4
3.1478077E-4
0.0011706641
-2.1032323E-4
-3.211121E-4
-5.3383806E-4
-6.787117E-4
-0.0017161807
3.5710778E-4
-4.9743033E-4
-1.6185894E-4
-4.7962874E-4
8.2459906E-4
0.0012109734
-0.0012507207
-0.0019205897
-6.5688934E-4
-6.2787876E-4
-7.2464594E-5
8.256666E-4
-0.0010929917
2.1808314E-4
-1.1743257E-4
-0.0012150084
-0.0032243324
-0.002574042
-0.0010014443
-6.762397E-5
-0.0015249031
-2.1547338E-4
0.0011231698
6.62151E-4
-1.4345362E-4
-5.517616E-4
-0.0013704484
-0.004508253
-0.001159953
0.0010130244
0.0024998784
0.0033426993
0.001508597
-0.0016009065
2.2404666E-7
-3.3998146E-4
0.0011812971
0.0014313731
0.0021791891
-7.6408876E-5
3.7855897E-4
2.7424848E-4
0.0012167634
3.7665846E-4
0.0012758058
0.0018800446
0.001966199
6.208555E-4
0.0011520709
0.0023169578
0.0030225534
0.002117268
4.526844E-5
-9.726159E-4
2.2639902E-4
0.0021148636
-6.4260984E-4
-6.7446445E-4
-8.86519E-4
3.2262818E-4
2.0766644E-4
-1.3441106E-4
0.004154818
0.003303912
-9.612595E-4
-0.0012240943
-6.619591E-4
8.1853056E-4
0.0025022516
0.00329954
5.942411E-4
-9.472387E-4
6.6469214E-4
0.0035741525
0.0019136213
0.0026118755
2.1716936E-5
-1.7530384E-4
0.0016716764
0.0011696684
3.9986311E-4
8.849315E-5
-0.0022579986
-0.0015756846
2.022557E-4
0.0016650483
-6.4293217E-6
-0.0028601831
-0.0022057989
-4.4668524E-4
-9.3841495E-4
0.0011343011
3.9087923E-4
7.566567E-5
-3.734824E-4
0.0015815708
-4.2275692E-4
-0.005252446
-0.003090846
-7.52742E-4
-0.0015487153
-0.0016389543
-0.004492214
-0.0013903216
7.345716E-4
6.5300765E-4
7.2850555E-4
0.0028856534
0.002050572
-6.2835414E-4
0.0023229653
0.0034626066
0.0026136949
0.0036238926
0.0027856396
-0.0010943038
0.0030378862
0.006214179
0.0022017239
0.0012040008
5.9570993E-5
0.0019195868
0.0041765994
0.0035514133
0.0034764227
0.0036637248
8.120787E-4
0.0041306866
8.571877E-4
-0.0016698614
-5.293252E-4
0.0024586206
0.003531931
-9.490799E-4
-0.0022078915
-0.002228132
-7.5287896E-4
-4.901214E-4
-7.0532714E-4
-0.0018112047
-0.0016272123
-0.0019640685
-3.4076732E-4
3.2363128E-4
-0.0011351802
-0.002642442
-0.0029451922
-0.0023311637
-0.0033379435
-0.0019577695
-4.6316502E-4
-0.0020986425
-0.0011676722
-7.758433E-4
-0.0038397247
-0.00362796
-2.4558767E-4
-0.0010674789
1.1423761E-5
-0.001133491
-0.002390001
-0.003491134
-0.0013602627
1.2919896E-5
-0.0016603619
-0.0024454491
-0.002477534
-0.0043629343
-0.0036914102
0.0021836725
0.0034281702
-4.7273835E-4
-9.388572E-4
0.0045231944
0.0029907324
6.86192E-4
0.0017759227
0.0010758662
0.0010467512
0.0014263492
4.6595762E-4
1.450994E-4
-4.0109782E-4
0.002152925
0.0036450392
-0.0016255743
-0.0011223163
6.215522E-4
-0.0037119426
-0.0025408198
-0.0017463851
-0.0019281099
-0.0010473847
-0.0016412389
-0.004516418
-0.0028499095
-0.0022973143
-0.0029996377
-0.0015988282
0.003877803
-0.0012254368
-5.5361306E-4
-9.029729E-4
-9.362133E-4
0.002150468
0.00257061
4.8563367E-4
-0.0035415501
-0.002484515
5.731686E-4
-0.0011315504
-5.715556E-4
7.2232494E-4
-0.0018160054
-0.0020858715
-4.158512E-4
-0.0026081037
-9.174868E-5
-4.3326552E-4
-0.0033015874
-0.0024641156
8.35472E-4
-5.870676E-4
1.3702243E-4
-0.0015829823
-0.0034996327
-0.0024016846
2.9337936E-4
-9.290081E-4
-0.0018816104
-0.0022172048
-2.1367279E-4
1.1955576E-6
1.5441947E-5
-0.00265201
-0.0022298042
0.0015693408
0.0018399644
0.0011953037
-6.770386E-5
-0.002053684
-0.0022254647
-0.0019871888
-0.0047618374
-0.0056748115
-0.0043066517
-0.002266015
-0.0025785104
-0.001198966
-0.0032254653
-0.0029471642
-8.721825E-4
-0.0022676438
-0.0013625398
-0.0014229852
-0.0043057282
-0.0040295646
-0.0027415524
-0.0035594066
-0.0023850114
-0.0023398106
-0.0039131884
-0.0029691886
-0.0013026609
-0.0029729004
-0.0028635492
-0.0030048469
-0.0025561969
-8.4225344E-4
-6.0016254E-4
-0.0015562996
-0.0030747852
-0.006572034
-0.0041469755
-0.0037189682
-0.004483288
-0.0026642494
2.760238E-4
-0.0016735918
-0.0029661716
-0.0013442906
-0.0018481223
-9.595017E-4
-5.5175123E-4
-0.0010329401
-0.0017456476
-0.0032923988
-0.0029302088
-0.0014293678
1.1523645E-5
-7.305996E-4
-0.0010076974
-0.004918795
-0.0030421757
-0.00112129
0.0012254571
-0.0021548783
-0.001264662
-0.0015729625
-0.0028601836
-4.1936932E-4
-0.0017811167
-0.002493608
-0.0012949607
-0.00107893
-0.0023779087
-0.0012680639
-0.0046245507
-0.0015243094
6.331062E-4
0.0016671342
0.0014485465
-0.0019207848
0.0014976237
0.0011917199
3.9980176E-4
8.460698E-4
0.0018967086
0.0023471056
0.0016650996
3.1980692E-4
-7.249527E-5
0.0020226368
0.0013335535
0.001630693
-9.017639E-4
-0.001527648
-0.0024619256
-0.0013263612
-0.0026472392
-0.0019719838
-0.0022496493
5.9715123E-4
1.7617483E-4
-0.0015457298
-0.0022011148
-0.0021064607
-0.001133949
0.0012462849
-2.225912E-4
-0.0014381844
-0.0015366662
-8.929884E-4
-6.1268196E-4
-0.002701891
-0.004068531
-0.0034128188
-0.0025854106
-6.9367327E-4
-0.0018445111
-4.0493405E-4
0.0025473163
0.0042089075
0.006718277
0.0018378361
3.7937553E-4
0.0029105018
0.0024342863
-1.5282264E-4
0.0033344203
9.1292977E-4
0.0013188233
0.003121463
6.0865073E-4
-6.0614642E-5
8.805371E-4
0.0015074261
0.0014359208
-4.144136E-4
-0.0013357333
0.002280937
0.0020522303
0.0021636984
0.002985065
-0.0022657085
-0.0028576958
0.0019824377
3.4484488E-4
-2.0627686E-4
0.0015750162
-2.762692E-4
-0.001250711
-0.0012018811
-5.50914E-4
-0.0013141376
-0.0026217266
-3.800535E-4
-0.0034829432
-0.0046690498
-0.0016531982
-0.0020508477
-0.0024438705
-0.0015674587
-5.2101305E-4
-4.9608457E-4
-0.0017062703
-0.0039542755
-0.0034336152
-0.0014616244
0.0012968571
0.0014895033
9.810915E-4
-0.0033167107
-0.004130204
-5.217395E-4
0.0017344763
0.0030467687
0.001958198
-0.0015477363
-0.0027987743
-0.0012867271
3.539073E-4
-3.1432537E-5
2.1592446E-4
0.0010866194
-7.327329E-4
-0.0013040996
-0.0024171015
-0.001793198
-6.288849E-4
-7.51115E-5
-0.0020864056
-0.0013194038
-0.0022364885
-0.0015714364
-0.0011621073
-0.0035321654
-0.0017845975
-0.0016694048
-0.0010416189
-9.318356E-4
-6.1127695E-4
-0.0024862564
-0.0012484146
-0.0019169475
-0.0047248825
-0.0043154857
-0.0031837942
-0.003194914
-0.0018462153
-0.0017404511
-0.0034406425
-0.003251741
-0.0038122651
-0.0027892846
-3.562548E-5
4.678759E-5
5.312692E-4
0.0017355455
-5.6806754E-4
-0.0010226658
3.5700743E-4
-0.0026498486
-0.001484289
-7.9412013E-4
-0.0023451308
-0.0010818487
-0.004939411
-0.0014543821
-9.3186524E-4
-1.3617452E-4
1.7180003E-4
-0.0025988803
-0.004016201
3.050762E-4
-0.0012911547
3.0383543E-4
5.695397E-4
-0.0016044823
-0.00234403
-3.361703E-5
-0.0016116316
-4.8051478E-4
0.0016850801
-0.0036980393
-0.0018662019
6.358855E-4
-0.003379641
-0.0028840941
1.5072076E-4
-0.0031607558
-8.48526E-4
-3.741523E-5
-0.0038088684
-0.0012569166
0.001997089
0.0013462962
9.1875624E-4
0.0028131981
0.004291662
0.005156929
0.0018455158
2.7976767E-4
-4.462937E-5
0.0016426399
0.0013457008
0.0013446102
7.7606644E-5
-7.714654E-4
0.0015912413
0.0016857975
6.4998155E-4
7.0775754E-4
-1.6376912E-4
-3.0571027E-4
-2.5683438E-4
0.0018503864
0.0033311064
0.0015192265
-0.0024867042
-0.0029534763
-0.0029266563
-0.001232449
5.901515E-4
0.0018746641
-0.002806099
-0.0033900915
-8.0219697E-4
-0.0014961966
-7.297137E-4
0.0026444714
0.0025723367
-9.909335E-4
-0.0017222614
-0.0011853944
-0.0011365449
9.860802E-4
0.0018457884
5.45067E-4
-7.017264E-4
-1.2481376E-5
1.1201634E-4
0.0014269457
9.390831E-5
-0.0010497423
-2.2946708E-4
0.0010720941
1.628763E-4
0.0023652199
0.0016830876
-0.0016165929
3.5482994E-4
1.5481813E-4
0.001308455
0.0025176203
0.003755692
-7.154498E-5
9.0833654E-4
-6.3446304E-4
0.0054779565
0.006126201
0.0047845906
2.4611497E-4
2.377042E-4
4.296855E-4
0.0050339564
0.0064581707
0.002865367
8.9693244E-4
-4.9317525E-5
8.7948574E-4
0.0032584034
9.7623473E-4
3.632116E-4
-2.860881E-4
-4.5705948E-4
-9.6836605E-4
-0.0024586306
-0.0031439567
1.4271447E-5
0.0010804744
0.0025424648
5.4274173E-4
-8.698594E-4
3.3931196E-4
0.001663145
-1.5295512E-4
0.0021134359
0.0016115773
0.0027186216
2.7957908E-4
3.2616424E-4
1.5877238E-5
0.0016138402
8.62162E-5
0.001083402
3.576843E-4
5.5718364E-4
2.6421616E-4
0.0020123797
0.0010565594
0.0017427012
0.003014883
0.0037359702
0.0041645393
0.002240704
0.0011196294
0.0017355551
0.004585404
0.0019843446
0.0028234671
-2.1629749E-4
-5.752434E-4
-0.0019979344
-9.952004E-4
8.649566E-5
-3.539878E-4
0.0022968706
0.002132006
1.9061947E-4
0.0027825795
0.0034857506
0.0024082414
0.0016419261
2.6956195E-4
0.0014154331
0.0015927677
2.614623E-4
0.0035839803
-6.229078E-4
0.0012302304
0.0025607757
0.002713385
6.50265E-4
0.0029298668
0.0017059438
0.003041164
0.004879119
0.0034466737
0.00187736
0.0010706251
-4.5947505E-5
0.0018523538
0.0014811077
0.0011347891
0.0015141036
0.0025780727
-6.372945E-4
0.0012565923
-3.5655024E-4
-8.583246E-4
-0.0016658225
2.321478E-5
-0.0023530973
9.6690847E-4
0.0017155982
0.004034035
0.0020174042
3.1548575E-4
-2.7823198E-4
0.0017419024
-4.1229025E-4
5.0892273E-4
0.0034616576
0.0011243655
0.0019450882
0.0053911023
0.003647042
4.617127E-4
0.0013145806
0.0010033592
0.0024265
0.003968931
0.0028242418
0.0021509419
0.0026492963
0.0013195584
2.6742445E-4
0.0015152702
0.0011876926
-4.966189E-5
0.0012112455
-2.797834E-4
7.283858E-4
0.0037086718
0.0049715396
0.0024440887
0.0013647056
-8.74045E-4
0.00349237
0.0022448073
-0.0014045315
-2.1083538E-4
0.0019057265
0.0016750498
3.0355419E-5
0.0049161008
0.0015081009
0.0018873049
0.0027946061
0.0014451751
0.0028959718
0.0027457536
0.006557909
0.005282904
0.0015912864
-7.0221344E-5
0.0014170907
-1.9209483E-4
0.0042850664
0.004830822
0.006924742
0.002199628
0.0021963408
0.004851616
0.0030110958
2.578095E-4
0.005305916
0.002975282
7.724596E-4
7.9894566E-4
-0.0011046805
-1.8097646E-7
-0.0013204475
-0.0017582716
0.0026431442
4.1523261E-4
-0.0051283133
-0.0017342018
0.002166299
0.0038126344
0.005244882
0.0039384356
-5.367525E-4
-2.9465044E-4
0.0062816236
0.0062420955
0.004962035
0.0046813698
8.359797E-5
-5.0443814E-5
0.004778
0.0027257195
1.7304142E-4
1.8614641E-4
-0.0032326935
-7.0615095E-4
0.0010184022
-0.0017606243
-0.0022450127
-0.0014965512
-0.0010440411
-4.0371047E-4
-0.002975678
-0.0015696128
-5.00311E-4
-0.0011147661
-5.0207635E-4
-0.0018913214
-4.0610816E-4
5.1050493E-4
-7.149249E-4
-0.0010863044
-0.0018881331
-0.001159172
-5.669576E-4
-2.730536E-4
-9.3490654E-4
-0.0033591343
-0.0035436635
-0.0015030906
5.1586906E-4
0.0011506053
-4.928856E-4
-0.0034776889
-0.0019294042
-0.0013196471
0.0012991701
6.0390576E-4
3.8916594E-4
-0.0015323138
0.0022463137
6.9590134E-4
1.6964735E-4
-0.002474869
-0.002167829
-4.1035618E-4
0.005145291
0.0014966836
2.6191503E-4
5.5104424E-4
0.0013261689
-0.0011106342
-9.3367376E-4
-0.0013246944
-9.762754E-4
-0.0027182903
4.3205707E-4
1.7281191E-4
7.1681075E-5
-4.905758E-4
5.7714307E-5
-8.928221E-4
-9.846492E-4
-2.1777203E-4
-2.982418E-4
-1.8669182E-4
1.12293885E-4
-9.924839E-4
-0.0017079439
-3.842886E-4
-6.207648E-4
2.926304E-4
7.421043E-4
4.6164554E-5
-0.0010205798
-0.0021274518
-0.0015976774
9.482517E-4
-1.9951383E-4
7.9011405E-4
-0.001863098
-0.0033462425
-0.0014066081
-9.306814E-6
-0.0013555785
-0.0025354344
-0.0012093498
1.0457794E-5
-3.1850266E-4
7.6612574E-4
-5.752739E-4
-0.0010849591
2.3237258E-4
-0.0014995435
-0.003661669
-0.0025753821
-0.0025040386
-9.2727516E-4
-8.030016E-4
-0.0015422015
-0.0011608716
-1.3496068E-4
1.3086201E-4
3.3680047E-4
-0.0010189408
-3.7098862E-4
0.0012972676
0.0012990033
0.0014284248
-7.673971E-4
-8.4493763E-4
9.951601E-4
1.8630637E-4
-4.9582747E-4
8.9698547E-4
-6.576678E-4
-0.0017636922
-6.5978407E-4
1.8520397E-4
-6.0122024E-4
1.8608778E-4
-7.712251E-4
-0.0015963076
-0.0011006613
-0.0010054037
-1.9143861E-5
-0.0012738188
-0.0033338782
-0.0025533244
-7.933263E-4
-0.0024521197
-0.004097013
-0.004051246
-0.0040388103
-4.2140353E-4
-0.0023084201
-0.0022896617
-0.0015756211
4.4741252E-4
-0.001291545
6.763978E-4
-0.001077224
4.425963E-5
3.4495804E-4
0.0011828789
-6.239944E-4
0.0016637236
2.906705E-4
9.779669E-4
-5.700405E-4
4.145515E-4
4.0361006E-4
-9.438584E-4
7.0977624E-4
4.0442988E-4
-0.0010780655
5.922794E-4
0.0022481452
-0.0021034935
-0.0012812172
-0.0027780533
-0.0032239663
-2.8246667E-4
-6.1166415E-4
-8.658669E-4
2.5912927E-4
8.9961325E-4
6.989408E-4
7.3348044E-4
-7.7491766E-4
-0.0011619292
-0.001439535
-0.0011942282
-0.0011793615
5.4956623E-4
-0.0012214192
-7.3068135E-4
-0.0019919164
-7.239952E-5
0.0010771509
0.0016780361
-6.175041E-4
0.0027673612
-0.0010433886
-1.4311621E-4
-5.457917E-4
-6.242352E-4
0.0019679042
-2.340364E-4
-0.0022555266
0.001026384
6.943392E-4
-0.001955938
-0.0011143254
0.0030824032
0.003310203
0.003918708
0.0015408469
-7.0536E-4
0.0013386148
0.0023449855
5.534002E-4
-0.001954841
5.509406E-5
0.0016093459
7.7685335E-4
2.8619202E-4
-0.0017243909
-0.0017515938
-0.001134525
2.2041184E-4
-0.0022603194
-0.0027111033
-0.0015555918
-8.8437827E-4
-0.0011306384
-2.6186726E-5
-0.002644868
-0.00430357
-0.001352286
-3.657468E-4
-6.583707E-5
-0.0011144633
-0.0020155485
-0.003998463
-0.0024374933
0.0015031084
4.506245E-4
-9.2725124E-4
6.013746E-4
-0.0013804331
-0.0021328772
-0.0016454638
-0.0013491027
-2.020786E-4
-3.2671704E-4
-0.0026363581
-0.0036606125
-0.0026253974
-0.0028767039
-7.8601297E-4
-0.0027093268
-0.0022807373
-0.0034264084
-0.001726761
-0.0022303066
-0.0020168857
-0.0034714404
-0.0038702982
-0.003496938
-0.0013461795
-9.700068E-4
-0.00198612
-0.0039518857
-0.0048222914
-0.0029329709
-0.0014942698
-6.96987E-4
-0.0013195341
-0.0037651185
-0.004074425
-0.0014891606
9.953983E-4
0.0013054191
6.1137625E-4
-0.0019846389
9.800047E-4
0.0019314548
4.61079E-4
9.5689297E-4
0.0012416225
8.251042E-4
-1.443849E-4
-1.9752336E-4
-0.00217271
-0.001290608
-0.0010434038
-0.0019016463
1.9778598E-4
-0.004140264
-0.0065113315
-0.0056688753
-0.0020297933
0.001122277
-2.7865064E-4
-0.0029613702
-0.0052839764
-0.007325653
-0.003007476
0.0019896012
-0.002392929
7.523084E-5
1.8254586E-4
-6.933226E-4
-7.216934E-4
-2.9674248E-4
-0.0021004565
-3.5790307E-4
4.6647016E-5
-8.931941E-5
8.1649516E-4
-2.0394393E-4
-0.0013281065
-0.0037405288
-0.0020646416
-0.0028439076
-0.0048135635
-0.0012261079
0.0022791815
-4.1672357E-4
-4.6923832E-4
0.001359581
-7.641451E-4
-3.9593322E-4
0.0018539724
9.120365E-4
-1.1554545E-4
9.150625E-4
0.0016693715
-4.4895615E-4
1.6721513E-4
-1.1689012E-4
-4.0201144E-4
-6.3640554E-4
-7.566052E-6
-6.589223E-4
-0.0017240646
-0.0025412957
-0.0018463953
-0.0010911815
-0.0010752133
-9.039931E-4
3.364728E-5
-0.0025282123
-0.0014618913
-5.175257E-4
-3.093746E-4
8.467103E-5
-7.8512466E-4
-0.0014445854
-6.678425E-4
-5.073161E-4
-0.0022694082
-0.0031181956
7.478214E-4
-0.0020580408
-0.003174276
8.5742073E-4
-0.0019189758
-0.0015383478
8.8120624E-4
-0.0013039031
-0.0018578698
-0.0016530737
-2.4587993E-5
-5.427793E-4
-3.4149998E-4
-7.641404E-4
2.7422007E-4
-7.298207E-4
6.051759E-4
4.901233E-4
-8.002579E-4
-0.003150079
-8.4714626E-4
-1.1408601E-4
-7.3573994E-4
-2.9515714E-4
4.1894062E-4
-0.0011174616
-4.624553E-4
-6.9208466E-4
-0.00261505
-0.002107758
0.0012487683
-6.555824E-4
-0.0032318924
-0.002469449
-7.012593E-5
-8.761737E-4
3.7429872E-4
-0.0018927676
-0.0036984687
-0.0030114376
3.4395827E-4
0.0013246009
-6.3109223E-4
-0.00220152
-0.0021290104
-0.0021315562
-0.0020962986
4.699845E-4
-0.002628177
-0.0016392223
4.7513022E-4
-0.0018627935
-0.003713251
-0.0021362533
-0.0018240248
-0.0013018552
0.0029897187
0.0018491835
-0.0017962728
-0.0021358277
0.0014480375
-3.7862343E-4
0.001088087
-6.6202006E-4
2.6368198E-4
0.0019085946
2.9974163E-4
3.976997E-4
-0.0010576379
0.0013441967
0.002945002
7.488503E-4
0.001988627
-0.0010835102
-0.003899599
-0.0011445638
0.001413913
9.971529E-4
-0.0011189687
-0.002769998
-0.0020175353
-0.0016301414
-0.002145147
-0.0030355086
-0.0011217906
4.3889412E-4
0.001561919
3.3978972E-4
-8.889359E-4
-0.0016092942
7.1918435E-4
0.003145099
0.0024622367
3.545505E-4
1.707905E-4
5.538842E-4
-9.397892E-4
0.0012821921
-3.3151166E-4
-0.004915661
-0.0015568023
-6.0278666E-4
-0.0021577931
7.680871E-4
0.0021359301
0.0021995953
-3.1932848E-4
-0.0011448237
-0.002799225
-0.001244564
0.0014262865
0.003634504
0.0016405937
0.0012040369
4.5851068E-4
0.002337555
0.0017387172
0.003132587
0.0032809577
0.004149718
0.004743264
0.003614577
0.0016909725
0.0033424825
4.9068686E-4
0.003159597
0.0039372304
0.0020952038
0.0014225665
0.0038136924
0.003106865
0.003101565
-2.7007668E-4
-0.0022730702
-6.7616766E-4
5.9951586E-4
4.8209637E-4
0.0017293233
-0.0021131784
7.79551E-4
0.0040895017
0.002860542
3.536889E-5
-0.0016100234
-8.2668907E-4
-0.0010581543
0.0010297436
-4.0030398E-4
-0.0011465005
-0.0014496495
0.002089682
-5.247658E-4
-0.004367272
-0.005159189
-0.0010162226
0.0023941048
0.0019590105
0.0019380567
0.0036387858
2.6347136E-4
-0.0016141868
0.0027164328
-1.3180215E-4
-0.0032831968
-0.0010072718
-8.856765E-4
-0.001920493
0.0011140308
0.0063230437
0.0036907855
-0.0010251327
7.3268916E-4
8.6446473E-4
0.001188722
-0.0012042294
0.0016562728
0.0037307104
0.0039111953
1.6941229E-4
-0.0017122931
-0.0014320221
7.507958E-5
-0.0022832558
-9.637064E-4
-9.0228696E-4
-0.0017078631
-0.0012986879
-0.004492106
-0.0069379057
-0.00685582
-0.005339825
-0.0025137747
-0.0018292455
-0.004088416
-0.0052453997
-0.0041849418
-0.0031428107
-0.0016041251
0.0019937085
6.8726565E-4
-0.0037952964
-0.0036050254
-1.7416713E-4
0.0011859467
0.0031997345
7.6854136E-4
-7.817196E-4
-0.0018421144
1.3935071E-4
0.0025374666
0.00154179
0.0010135956
-8.1449354E-5
4.2387913E-4
4.242763E-4
-0.0016494538
8.333642E-4
0.0010917718
0.001427089
0.0020018774
-1.8274297E-4
-9.358618E-4
-0.002307305
-0.0015469198
0.002276809
0.0043269936
0.0015220065
5.7792105E-4
-0.0027910164
-0.0016254196
-8.899763E-4
-0.002103344
-0.001357306
-6.986342E-4
-5.342606E-5
4.7101796E-4
-5.755143E-4
-5.935364E-4
0.0028960798
0.002653504
-4.7960394E-4
8.2501024E-4
-0.0029386955
-0.0052517494
-0.0011351035
-0.0011492653
-0.0016143324
2.2696369E-4
9.734245E-4
0.0022654135
0.0029472508
0.0019509492
4.2574108E-4
-0.0019278869
-0.0016486298
5.922828E-4
0.002008582
0.001251659
-1.8949233E-5
-0.0012301411
-0.0015652331
-8.6551387E-4
-5.1164714E-4
3.4767296E-4
-9.84659E-4
-0.0021929294
-0.0034520277
-0.0048321714
-0.0036777768
-0.0017912352
-0.0030314839
-0.0029666023
-0.002329171
-0.0030152234
-0.0042927144
-0.0052811885
-0.0032733646
-0.0031789932
-0.003452852
-0.0023166128
-0.0042709573
-0.0065861153
3.2084342E-4
0.0015218828
-9.181199E-4
-0.0018436126
0.001028852
0.002555695
-8.169757E-5
0.0018500327
0.0021271962
9.435895E-4
-5.396728E-4
-1.7510871E-4
-3.011927E-4
0.0014224008
-0.0011145269
-0.0023740842
-6.837644E-4
-4.5969023E-4
-0.0011198774
-6.01319E-4
-0.004613045
-0.004587072
-0.0012576957
6.296627E-4
-3.153576E-4
-0.002574319
-0.003414507
-0.0023380113
-0.0036967814
-0.0014942649
-7.950471E-4
-0.003061491
-9.6434975E-5
0.002139132
-7.478718E-4
0.0011312749
-0.0040230844
-0.00294735
-0.0042891055
-0.004045013
-0.004752553
-0.0023848307
-0.0035888734
5.585962E-4
-0.0025924204
0.0010671732
-5.699972E-4
-0.0016032507
-0.0014727343
3.412625E-5
-0.0034062897
-0.0028401273
0.0018190884
0.002257727
0.0020641848
6.6526025E-4
-0.0021943706
-2.563126E-4
0.0037444625
0.0012471189
-7.2128716E-4
0.0014820641
-0.0015402476
0.0026624836
0.004402102
1.292538E-4
-0.002878754
8.3213486E-4
0.001500281
7.3422294E-4
6.173062E-4
-0.0011264168
-0.0035016194
-0.0023055496
-0.001212771
-0.0027359477
-0.002566291
-0.0016184797
-9.8695964E-5
-0.0017584866
-0.0017713937
-0.00164997
-8.189125E-6
5.4294796E-4
-0.0020672192
-0.0013892213
-0.0038639528
-0.003862578
-5.79026E-4
-0.002349744
-0.0031270694
-0.0016303721
-0.0071025393
-0.0072243307
-0.0033018184
-0.0050620474
-0.0034550736
-1.1812271E-4
-0.0017559982
-0.0025897082
-0.0016433313
-6.9493055E-4
-3.5585638E-4
-0.0010953434
-0.0020328986
-9.923588E-4
-0.0018464817
-0.0020676346
-0.0039661867
-0.00309426
-0.003054824
-0.0030810367
-0.0016748431
-5.516427E-4
-0.0021082177
-0.0018267401
-0.0023085775
-0.0021597748
-0.0013055599
-1.7246159E-4
-0.0015330049
-0.0048620906
-0.0037274417
-0.0064420383
-0.0035700295
9.6188555E-4
-8.07734E-4
-0.005495299
-0.0042508645
-0.005912896
-0.002849157
8.352177E-4
-0.0055631385
-0.004896674
-0.0035074176
-0.004336424
-0.0012793071
-0.0010514578
-0.0021493402
-0.0016893034
-0.0028668884
-0.0038248894
-0.0016275335
-0.005535644
0.0010608619
-0.0024942146
-0.003956647
-0.00358686
-1.9195085E-4
0.001014177
0.0028838841
-0.0018702692
-0.0025076324
-0.0010376777
-0.0019072786
6.8830187E-4
0.0047037583
-0.0010187353
-0.0023553083
-0.0012216228
-0.0026718022
0.0015900135
0.0011511106
-9.652793E-4
-0.0021411306
-0.0037450357
-0.0033331783
0.0019489343
-9.0737105E-4
-0.0021592928
7.55936E-4
-0.0014493989
-0.0029979402
-0.0016667072
0.0013456637
-0.0034515846
-0.0015761061
-0.0013185614
-0.00157803
-0.0012278479
-0.0011035879
0.002083972
0.0023352462
-2.3171776E-4
-0.0021213698
-0.001918054
-0.0012104688
0.0020434004
0.0011945807
-0.0023118258
-9.2792325E-4
-4.0574264E-4
-0.0012857055
9.874054E-4
7.6557294E-4
-0.0021077099
-0.0014658186
5.694125E-4
9.973762E-4
0.0033274323
0.002448818
0.0012178795
0.003152078
0.003088174
0.0016154727
0.0059606684
0.0077270675
0.00640506
0.006568377
0.0050604222
0.0024345051
0.0048302636
0.006952268
0.008094848
0.0055276477
0.0033887895
-0.0018785462
0.002917847
-0.0015552136
-0.0018877769
7.0408557E-4
-0.0022340177
-0.0012089147
6.079485E-4
0.0012812042
-6.930671E-4
-0.0010001257
9.698691E-4
-0.0017624312
-0.0012434605
0.001135024
6.4370816E-4
2.2420887E-4
5.700292E-4
-9.3180913E-4
-0.0029883133
-0.00295041
-0.0026366515
-0.0013904475
0.002342671
-2.400812E-4
-0.0032440224
-0.0034782104
-0.0036216448
-0.0012449003
0.0017589049
-0.0010196583
-2.9112067E-4
-0.0024134533
-0.0020184815
0.0013922162
-2.8657046E-4
0.0011583117
0.0018613769
-6.943972E-4
0.0014081632
-6.973613E-4
-0.0021446152
-6.4408395E-4
-9.8628865E-5
-3.3589875E-4
0.0028443704
0.0014389397
-0.0029070815
-1.3550522E-4
-0.0034281823
-0.0023512072
-4.7185578E-4
5.722882E-4
-0.0011844062
0.0015279875
-0.001367155
-9.080254E-5
-0.0013280493
1.3015405E-4
0.0014740665
6.698152E-4
-3.1297683E-4
3.768374E-4
3.0197535E-4
-0.002198439
-0.0021234052
-0.0025391132
8.515526E-5
9.094537E-4
3.5776704E-4
9.698102E-4
-3.7950912E-4
-0.0050858846
7.693573E-4
0.0043058572
0.002639494
0.0017615054
-0.003194394
-0.0025368934
0.0032383765
0.0061620055
0.005378387
0.0027288832
-0.0018230332
-4.2033545E-5
-1.0378209E-4
0.0040868176
0.0020418824
-0.0018077625
-6.5104984E-4
0.0021870858
0.0018377586
0.0041482956
0.0018225226
-0.0016976781
0.001169075
0.0015360909
0.0015712403
4.6275207E-4
3.9482332E-4
-5.004E-5
0.0035464554
0.003477625
0.0017233042
-6.0783955E-4
-0.0021190448
-0.0015997068
0.0014140288
0.0020831474
7.8151067E-4
5.333967E-4
-1.0435877E-5
-0.0014731464
2.4291684E-4
-0.0028579282
-0.0047938153
-0.002103041
-0.003852285
-0.006324891
8.188093E-4
-0.0018489616
-0.0021412584
3.4379226E-4
-0.0019248638
-0.0035509248
9.773879E-4
0.0015614359
-0.0017897072
-6.902321E-4
-7.3786586E-4
-0.0011539743
7.2080153E-4
0.0011080815
-0.0016937259
-7.4819266E-4
-0.0012641768
-0.0025188588
9.575379E-5
9.5762676E-5
-1.5011901E-4
-0.0016683234
-0.0018466718
0.0019082059
-8.2300167E-4
-5.444931E-4
-9.828391E-4
-0.0014392694
-0.0037287641
-0.0023402004
-0.003160422
-0.0013451106
-0.0012054277
-0.0031939817
-0.0036373222
-0.004071245
-0.003978212
-0.0017907036
-0.0013916999
-0.0018416084
-0.0023549038
-0.0027208086
-0.0020531046
5.7782256E-4
-0.0011107288
3.0879793E-4
-0.0011354499
-0.0017384852
-0.0012915882
0.0014177137
8.2664925E-4
0.0033674068
0.0019497997
7.9110055E-4
6.129707E-4
-0.0012472912
-1.6671758E-4
0.0012596691
0.0035940628
0.0034245313
0.0031385394
6.2343443E-4
0.0019589737
0.0020685203
0.0019241722
0.003695458
0.0025514863
0.0017773211
0.0049477885
5.513624E-4
0.0010932893
0.0019343734
0.0025157908
5.462936E-4
0.002189621
-0.0017883052
-0.0020736905
-2.5948917E-4
-1.6315826E-4
-4.5915146E-4
-0.0016012681
-0.0032834634
-1.0649972E-5
0.0014864935
-6.7877397E-4
-0.001346722
-9.204904E-4
-0.0016134568
0.0023733769
0.0037857713
0.0017927091
-0.0021009925
0.001969729
9.3872624E-4
0.0022222903
0.0036399006
0.0024562017
-0.002841963
-0.0021839002
-5.0328474E-4
-6.812143E-4
-0.0013104989
-0.0019293728
-5.742459E-4
1.019265E-4
-8.8317867E-4
-6.609198E-4
1.196923E-4
0.0010620318
-0.003022091
-0.0022539047
-0.0016130618
-6.581163E-4
-0.0020879135
-0.0017432783
-0.0048353514
-0.004265478
-6.001418E-4
5.2270174E-5
-0.0033592423
-0.0035670698
2.7394859E-5
7.572009E-4
0.0034997708
0.003694098
0.0011417414
0.0011339302
0.0022106483
0.00120765
7.817338E-4
-4.7152332E-4
-0.0013747037
0.0011580158
-0.0035992416
-7.4850535E-4
-2.9952434E-4
3.4361132E-5
5.173746E-4
-5.1134813E-4
7.36566E-4
0.0012209308
-5.5335823E-4
0.001912825
0.003402194
0.001377724
0.0020968586
0.0021804674
0.0019927933
0.0037814311
0.0025680843
9.428907E-4
4.2153086E-4
0.002284884
0.0016089824
5.16551E-4
-4.758845E-5
4.1072443E-4
-3.58132E-4
6.8671524E-4
4.303237E-4
-2.8318661E-4
4.769492E-4
7.866527E-5
-9.784441E-4
-9.510751E-5
-0.0037262628
-0.0040594256
-0.0014137554
-0.0013263426
-0.0029732506
-0.0033111563
-0.0043141395
-0.001893065
-0.0013728503
-0.0032461053
-3.0613778E-4
3.8102758E-4
-0.0010232406
-0.0012412141
-3.5569584E-4
4.688098E-4
-0.0012199399
-1.9479418E-4
-0.0015013253
-0.0028303813
-0.0021336651
-0.0013839786
-0.0010512755
-8.209527E-4
-0.0015781436
-0.0017959141
-0.0016328371
-0.0013237947
6.7588803E-4
-0.0010738447
-0.0015584808
-0.0015600328
-2.0733546E-4
-0.0010650649
-0.002315377
-0.001693654
-0.0032917892
-0.0021186366
-0.0011298511
-0.0053157015
-0.004274708
3.524196E-4
0.0048888354
0.0034560256
-0.0015254406
-0.004253429
-4.712915E-4
0.0030078625
0.0031532058
0.0027355033
-5.673411E-4
-0.001037265
-0.0025093947
0.0020331116
5.470098E-4
-0.0019371437
-0.0016143064
-0.0020133753
-0.0012825117
0.0016675447
3.3082244E-5
-0.002008908
-0.0014362175
-0.0013480596
7.165645E-4
0.0031503711
0.0017395053
-3.2966706E-4
-0.0016162773
0.0020841025
0.0032348654
0.0023004692
-0.0011189564
-0.0010979294
6.302985E-4
0.0030951411
0.0019336402
0.0016674637
-1.8191259E-4
8.057505E-4
2.456708E-4
0.0021012318
-1.6346973E-4
-0.001418222
-0.0031136204
-0.0036997413
-0.0022096662
-4.6158797E-4
9.111227E-4
7.9761934E-4
-0.0014406957
-0.002050371
-3.7093887E-5
-8.6911634E-5
1.930687E-4
0.0010587631
-1.6104631E-4
-4.9798895E-4
0.0038938173
0.0014343624
-0.00246698
-4.4923445E-4
0.0014215407
8.8272383E-4
0.0017637534
-7.684225E-4
-2.7345557E-4
6.269706E-5
8.867121E-4
-2.354991E-5
-7.6682365E-4
2.7411833E-4
-2.3658522E-5
-0.0031315535
-0.0052786926
-0.002891754
-7.0613064E-4
-9.2141476E-5
0.0029410701
7.3112315E-4
9.96092E-4
3.4150467E-5
-0.0019005964
-7.353308E-4
0.0042357845
0.0018724342
6.4483436E-4
1.5347303E-4
9.014156E-4
0.002417822
0.0035738698
-5.917189E-4
-6.052385E-4
0.0012344886
0.0022806574
0.0041021686
0.0020635258
-9.4652735E-4
0.0019898498
0.004123538
2.0811196E-5
2.6530988E-4
0.004137397
0.0015695323
0.0031976053
0.0049494244
8.384292E-4
0.0011697568
0.0018365007
8.062372E-4
-6.1978656E-4
0.001801704
0.0029893443
0.0020206054
-1.748728E-5
0.003302639
0.004677009
0.005834779
0.003289439
0.0022581662
-0.0011406997
0.0035236408
0.0070502157
0.0061745597
0.0014898956
-6.064781E-4
0.0017999702
0.0023388602
0.0064900983
0.007327131
0.0035544157
0.0020634145
-8.1013585E-4
-3.115459E-4
0.004371433
0.003426375
-4.6141614E-4
-0.001745903
-0.0035558543
-0.0022978322
-0.0014306427
-0.0037136571
-0.003560287
-0.0057835774
0.003396543
1.0285732E-4
-7.103716E-4
-0.002163393
1.5420603E-4
0.0032406717
-4.2413452E-4
-6.474458E-4
-9.1463054E-4
-0.0023551455
-0.0027455962
-0.0024551002
-0.0021338898
-0.0021919075
-0.0030578575
-0.005230123
-0.0044978857
-0.0030373968
-0.0017632566
-0.004364186
-0.004039404
-0.0045209103
-0.0048515117
-0.0017201884
-9.877763E-4
-0.003207978
-0.0011717603
-1.6306526E-4
-0.002060215
8.317558E-4
-0.0028118193
0.0022087926
0.0036126375
0.003694924
0.0012304739
-0.0014519915
-0.0024975366
-0.0033918635
-0.0016371092
-0.002087519
-0.0048252866
-0.0028392682
-0.004287481
-0.0034379046
-0.0014405292
-0.0012558935
-0.0034585763
-0.0031314394
-0.0029374594
-0.0014671427
-0.0015772436
-0.002507537
-0.0022238903
-0.0034055097
-0.004458054
-0.0033605895
-0.0030828582
-0.00633082
-0.0065191146
-0.005306921
-0.004778033
-0.003441362
-0.0045362366
-0.0057997406
-0.0069810566
-0.00474815
-0.0036311927
-0.0062608877
-0.007903691
-0.0064602513
-0.0056009917
-0.004842285
-5.801688E-4
7.806665E-4
-3.369614E-4
-8.095501E-4
0.0011639751
0.0011025041
-5.8030575E-5
-4.8249625E-4
-0.0030303462
-0.003055167
-0.0015806651
-0.0035257153
6.61014E-4
-0.0010577061
-0.0041870773
-0.003799263
-0.0012656781
-4.1703216E-4
-0.0022505955
-0.002321533
-0.0021408275
-0.0042729527
-0.002130632
2.204103E-5
-0.002694645
-0.002551917
-0.002913779
-0.0034398574
-0.0027160398
-0.0026402276
-0.0017382088
-0.0035343478
-0.004935721
-0.0042090714
-0.0045284815
-0.004291287
-0.0030196374
-0.0024860632
-0.0012453429
1.5752127E-4
-7.864293E-4
-0.0016465111
1.2674293E-4
0.002571088
0.003823685
0.004476456
5.3233878E-5
-1.5727387E-4
-0.0012614812
0.0011511553
0.0021011452
-4.5603342E-4
-0.0035350388
-0.0024728687
-8.0461876E-5
2.833779E-4
-2.5342702E-4
-0.0020404486
-0.0022851538
-0.001969189
5.044651E-4
3.818818E-4
-0.0021590504
-0.0015123177
0.0012458919
-1.3267933E-4
1.419999E-5
0.0025893361
0.0019488991
0.0014300138
0.0014795223
4.304175E-4
-4.5221925E-4
-0.0023002913
-0.0022326778
-0.0021308246
-0.0015896963
-4.1494076E-4
0.0019666676
9.84686E-4
-0.004364454
-0.0030807252
0.0010814131
-4.6435226E-4
5.6260405E-4
0.0019020629
-0.002382316
-0.0013001176
0.0024232552
0.0018979961
4.6920864E-4
0.002712172
0.0015331428
-8.8012384E-5
9.152235E-4
8.383447E-4
0.0014930126
5.1885925E-4
0.0020617836
0.002434617
2.1471291E-4
-9.411428E-4
0.002979537
0.001552362
0.0040407074
0.00356247
-4.169807E-4
-6.370365E-4
-0.0019794689
-0.0011882957
-9.147975E-4
-8.9106493E-4
-1.3491893E-4
-0.002232345
-0.0015590558
-0.0015933702
-9.4715867E-4
2.5193367E-4
-6.754063E-5
8.42582E-5
-0.0016425839
-0.002578012
-0.0035112118
-0.0032002097
-0.0020209458
-0.0012011812
-2.7451728E-7
-0.0024660234
-0.0041002794
-0.0054707406
-0.0040523876
-0.002049991
2.753368E-4
-0.0020528932
-0.0031861556
-0.0031275398
-0.0023873472
-0.0019888952
-2.701868E-4
7.50988E-4
1.7257404E-4
0.0014019134
0.0025539785
5.802229E-4
-0.0019049163
-0.0027253968
-0.0013370279
-0.0018674681
-0.0025165132
-0.0021685816
-0.0014331578
-4.455928E-4
-0.0015564198
-0.0032823803
-0.0019455624
-0.0010032986
-0.0025052738
-0.0010769565
-0.004637775
-0.006360543
-0.0018947301
-0.0012854952
-0.0037401137
-7.34585E-4
-0.003597906
-0.0038251202
-0.001062332
-0.0018182753
-0.002227645
7.27957E-4
-9.691175E-4
-7.671075E-4
2.55878E-4
-0.0020908173
-7.4567756E-4
-2.6166084E-4
-0.0028235093
-0.001679186
3.8803945E-4
8.613212E-5
-8.489441E-4
0.0010965436
0.0021386188
0.0014920393
-7.8999944E-4
-0.0014494373
1.0861819E-4
-1.4307277E-4
-0.0014049124
-2.97582E-4
9.962893E-4
9.373046E-5
-4.7473478E-4
-8.153925E-4
-9.936187E-4
-7.523928E-4
-3.4539553E-4
-0.0017656244
-0.0014576744
-0.0011535637
-2.7621706E-4
-7.161831E-5
-0.0015840344
4.2491705E-5
-6.5037835E-5
2.992786E-4
-0.0035270578
-0.0028021447
0.0011839138
0.001955929
-0.0012291486
-0.0029665835
-0.004182129
-0.0023439901
0.0010976507
3.107558E-4
-9.780806E-4
-3.21129E-4
8.0228725E-4
8.46226E-4
0.0034066732
-3.6008685E-4
-2.1967567E-4
0.001965833
0.0010057297
0.004444374
0.0033422804
-6.2086247E-4
-0.0036730308
-8.479954E-4
0.001535323
0.003684693
-6.3884596E-4
-0.003922406
-7.445209E-4
-0.0021741716
6.311137E-4
-1.8795483E-5
-0.0027194987
-0.003852542
0.0010772636
-0.002201959
0.0016537663
-0.0028650286
-0.0028697827
-0.0014437168
8.746648E-4
-7.0513313E-4
-0.0012323502
-0.0029167295
-0.0032544942
-0.0028452005
0.0010195454
0.0035423199
0.002508552
0.0029523564
0.0016083955
0.0023141853
0.003399607
0.0011954135
5.3484354E-4
0.0022136
0.0010516238
0.0024348805
0.005139852
8.681635E-4
-9.217654E-5
-6.185878E-6
-1.1669279E-4
0.0024306532
0.0023757243
0.0028735115
-4.4098566E-4
5.2582985E-4
0.0023164377
0.0017179507
-0.0011050871
-5.620854E-4
-0.0030730148
-0.002645454
4.5758864E-4
-7.194531E-5
6.1857005E-5
8.346344E-4
-0.0026053702
-0.0023320368
-0.0011360954
-0.0015150025
0.0018048675
0.0026973658
0.0029877797
0.0030550465
6.983067E-4
2.3579743E-4
0.0024460992
-7.795126E-5
0.0037969812
0.004483983
0.0014470975
8.5154467E-4
0.004531669
0.003905322
0.0056156395
0.004467318
0.0011134816
0.0037261012
0.0039506154
0.0020343787
0.002137176
0.0026259222
6.3037826E-4
0.002287183
0.0032654386
0.0018828011
7.9193414E-4
7.557701E-4
0.00160015
0.0021534467
0.0024469476
-5.4741924E-4
-0.0015275197
-0.0024824673
-0.0026138232
-0.0022054547
0.001138208
-2.2180258E-4
-0.0010774795
-0.0011057011
0.0017912027
0.003962395
-8.874701E-4
-0.0010292444
-0.0028826375
-0.0032915869
4.212844E-4
0.0029023434
0.0010751073
0.0013456406
-0.0016326883
-5.392883E-4
0.0017132084
-1.02053265E-4
0.004082123
0.0034824437
1.4054225E-4
0.0012206724
0.0030268251
0.0022909348
0.0042424398
0.0045759035
0.004109833
0.004977652
0.006360586
0.0036908227
4.0422127E-4
0.0010382027

